{"train/loss": 444.2063747867942, "train/objective": 444.2063747867942, "train/constraints": 0.0, "train/weight_anealing": 1, "_timestamp": 1648743278, "_runtime": 318, "train/objective2": 0.27156662940979004, "_step": 11777, "gradients/action_encoder.l2_za.bias": {"_type": "histogram", "values": [1.0, 0.0, 2.0, 0.0, 1.0, 1.0, 0.0, 1.0, 0.0, 0.0, 0.0, 2.0, 2.0, 2.0, 1.0, 0.0, 0.0, 0.0, 0.0, 2.0, 2.0, 1.0, 1.0, 3.0, 3.0, 1.0, 1.0, 1.0, 1.0, 2.0, 2.0, 2.0, 1.0, 5.0, 2.0, 3.0, 3.0, 1.0, 1.0, 2.0, 4.0, 1.0, 0.0, 1.0, 2.0, 0.0, 0.0, 0.0, 0.0, 2.0, 0.0, 0.0, 0.0, 0.0, 0.0, 0.0, 0.0, 0.0, 0.0, 0.0, 0.0, 0.0, 0.0, 1.0], "bins": [-0.5409793257713318, -0.521272599697113, -0.5015658736228943, -0.48185911774635315, -0.462152361869812, -0.44244563579559326, -0.4227389097213745, -0.4030321538448334, -0.38332539796829224, -0.3636186718940735, -0.34391191601753235, -0.3242051899433136, -0.30449843406677246, -0.2847917079925537, -0.26508498191833496, -0.24537822604179382, -0.22567149996757507, -0.20596475899219513, -0.18625801801681519, -0.16655129194259644, -0.1468445360660553, -0.12713780999183655, -0.1074310690164566, -0.08772432804107666, -0.06801758706569672, -0.04831084609031677, -0.028604108840227127, -0.008897371590137482, 0.010809369385242462, 0.030516110360622406, 0.05022284388542175, 0.0699295848608017, 0.08963632583618164, 0.10934306681156158, 0.12904980778694153, 0.14875653386116028, 0.16846328973770142, 0.18817001581192017, 0.2078767567873001, 0.22758349776268005, 0.24729023873806, 0.26699697971343994, 0.2867037057876587, 0.30641046166419983, 0.3261171877384186, 0.3458239436149597, 0.36553066968917847, 0.3852373957633972, 0.40494415163993835, 0.4246508777141571, 0.44435763359069824, 0.464064359664917, 0.48377111554145813, 0.5034778714179993, 0.523184597492218, 0.5428913235664368, 0.5625980496406555, 0.5823047757148743, 0.602011501789093, 0.6217182874679565, 0.6414250135421753, 0.661131739616394, 0.6808384656906128, 0.7005451917648315, 0.7202519774436951]}, "gradients/action_encoder.l2_za.weight": {"_type": "histogram", "values": [2.0, 0.0, 2.0, 1.0, 2.0, 1.0, 0.0, 0.0, 1.0, 0.0, 3.0, 4.0, 5.0, 6.0, 12.0, 12.0, 5.0, 9.0, 16.0, 36.0, 31.0, 48.0, 52.0, 70.0, 91.0, 125.0, 171.0, 228.0, 275.0, 388.0, 425.0, 567.0, 742.0, 698.0, 944.0, 876.0, 703.0, 459.0, 307.0, 200.0, 158.0, 110.0, 66.0, 64.0, 50.0, 35.0, 54.0, 26.0, 18.0, 19.0, 13.0, 13.0, 9.0, 9.0, 10.0, 8.0, 3.0, 3.0, 0.0, 3.0, 2.0, 0.0, 1.0, 1.0], "bins": [-0.1903485655784607, -0.18469226360321045, -0.1790359616279602, -0.17337965965270996, -0.16772335767745972, -0.16206705570220947, -0.15641075372695923, -0.15075446665287018, -0.14509816467761993, -0.1394418627023697, -0.13378556072711945, -0.1281292587518692, -0.12247296422719955, -0.11681666225194931, -0.11116036027669907, -0.10550406575202942, -0.09984775632619858, -0.09419145435094833, -0.08853515237569809, -0.08287885785102844, -0.0772225558757782, -0.07156625390052795, -0.06590995192527771, -0.060253653675317764, -0.05459735170006752, -0.048941049724817276, -0.04328475147485733, -0.037628449499607086, -0.03197214752435684, -0.026315849274396896, -0.020659547299146652, -0.015003249049186707, -0.009346947073936462, -0.00369064649567008, 0.001965654082596302, 0.0076219551265239716, 0.013278255239129066, 0.01893455535173416, 0.024590857326984406, 0.03024715557694435, 0.035903457552194595, 0.04155975952744484, 0.047216057777404785, 0.05287235975265503, 0.05852866172790527, 0.06418496370315552, 0.06984126567840576, 0.07549756020307541, 0.08115386217832565, 0.0868101641535759, 0.09246646612882614, 0.09812276065349579, 0.10377906262874603, 0.10943536460399628, 0.11509166657924652, 0.12074796855449677, 0.126404270529747, 0.13206057250499725, 0.1377168744802475, 0.14337317645549774, 0.14902947843074799, 0.15468576550483704, 0.16034206748008728, 0.16599836945533752, 0.17165467143058777]}, "gradients/action_encoder.l1_za.bias": {"_type": "histogram", "values": [1.0, 0.0, 0.0, 0.0, 0.0, 0.0, 0.0, 1.0, 1.0, 2.0, 1.0, 1.0, 1.0, 1.0, 6.0, 5.0, 1.0, 0.0, 4.0, 5.0, 0.0, 3.0, 2.0, 4.0, 2.0, 6.0, 7.0, 6.0, 10.0, 8.0, 6.0, 10.0, 6.0, 4.0, 2.0, 1.0, 1.0, 3.0, 1.0, 0.0, 4.0, 2.0, 1.0, 0.0, 0.0, 4.0, 2.0, 0.0, 0.0, 1.0, 1.0, 0.0, 0.0, 0.0, 0.0, 0.0, 0.0, 0.0, 0.0, 0.0, 0.0, 0.0, 0.0, 1.0], "bins": [-0.66140216588974, -0.6375473141670227, -0.6136924624443054, -0.5898376107215881, -0.5659827589988708, -0.5421279072761536, -0.518273115158081, -0.4944182336330414, -0.4705633819103241, -0.4467085301876068, -0.4228536784648895, -0.39899885654449463, -0.37514400482177734, -0.35128915309906006, -0.3274343013763428, -0.3035794496536255, -0.2797245979309082, -0.2558697462081909, -0.23201489448547363, -0.20816005766391754, -0.18430520594120026, -0.16045035421848297, -0.13659551739692688, -0.1127406656742096, -0.08888581395149231, -0.06503096222877502, -0.041176117956638336, -0.017321273684501648, 0.006533578038215637, 0.030388429760932922, 0.054243266582489014, 0.0780981183052063, 0.10195302963256836, 0.12580788135528564, 0.14966273307800293, 0.17351756989955902, 0.1973724216222763, 0.2212272733449936, 0.24508211016654968, 0.26893696188926697, 0.29279181361198425, 0.31664666533470154, 0.3405015170574188, 0.3643563389778137, 0.388211190700531, 0.4120660424232483, 0.4359208941459656, 0.45977574586868286, 0.48363059759140015, 0.5074854493141174, 0.5313403010368347, 0.555195152759552, 0.5790500044822693, 0.6029048562049866, 0.6267596483230591, 0.6506145000457764, 0.6744693517684937, 0.6983242034912109, 0.7221790552139282, 0.7460339069366455, 0.7698887586593628, 0.7937436103820801, 0.8175984621047974, 0.8414533138275146, 0.8653081655502319]}, "gradients/action_encoder.l1_za.weight": {"_type": "histogram", "values": [1.0, 0.0, 0.0, 2.0, 1.0, 0.0, 0.0, 1.0, 0.0, 2.0, 0.0, 1.0, 0.0, 2.0, 5.0, 9.0, 7.0, 10.0, 14.0, 12.0, 27.0, 41.0, 42.0, 42.0, 103.0, 120.0, 166.0, 252.0, 347.0, 500.0, 758.0, 1598.0, 3693.0, 4198.0, 1788.0, 862.0, 566.0, 352.0, 248.0, 155.0, 111.0, 88.0, 56.0, 58.0, 43.0, 25.0, 17.0, 17.0, 13.0, 11.0, 2.0, 4.0, 2.0, 2.0, 1.0, 4.0, 1.0, 2.0, 1.0, 0.0, 0.0, 0.0, 0.0, 1.0], "bins": [-0.31115585565567017, -0.30174654722213745, -0.2923372685909271, -0.2829279601573944, -0.2735186517238617, -0.26410937309265137, -0.25470006465911865, -0.24529077112674713, -0.2358814775943756, -0.2264721840620041, -0.21706287562847137, -0.20765358209609985, -0.19824428856372833, -0.1888349950313568, -0.1794256865978241, -0.17001639306545258, -0.16060708463191986, -0.15119779109954834, -0.14178848266601562, -0.1323791891336441, -0.12296989560127258, -0.11356059461832047, -0.10415129363536835, -0.09474200010299683, -0.08533269912004471, -0.07592339813709259, -0.06651410460472107, -0.05710480362176895, -0.04769550636410713, -0.03828620910644531, -0.028876908123493195, -0.019467614591121674, -0.010058313608169556, -0.0006490154191851616, 0.008760282769799232, 0.0181695818901062, 0.02757887914776802, 0.03698817640542984, 0.04639747738838196, 0.05580677092075348, 0.0652160719037056, 0.07462537288665771, 0.08403466641902924, 0.09344396740198135, 0.10285326838493347, 0.11226256191730499, 0.12167186290025711, 0.13108116388320923, 0.14049045741558075, 0.14989975094795227, 0.15930905938148499, 0.1687183529138565, 0.17812764644622803, 0.18753695487976074, 0.19694624841213226, 0.20635554194450378, 0.2157648503780365, 0.22517414391040802, 0.23458345234394073, 0.24399274587631226, 0.25340205430984497, 0.2628113329410553, 0.272220641374588, 0.28162992000579834, 0.29103922843933105]}, "gradients/action_encoder.l3_z.bias": {"_type": "histogram", "values": [1.0, 0.0, 0.0, 0.0, 0.0, 0.0, 1.0, 1.0, 0.0, 0.0, 0.0, 0.0, 0.0, 0.0, 2.0, 0.0, 0.0, 1.0, 0.0, 3.0, 0.0, 1.0, 1.0, 2.0, 1.0, 1.0, 1.0, 0.0, 3.0, 4.0, 4.0, 1.0, 1.0, 3.0, 3.0, 3.0, 2.0, 2.0, 1.0, 4.0, 4.0, 0.0, 3.0, 1.0, 0.0, 0.0, 1.0, 0.0, 1.0, 2.0, 1.0, 0.0, 1.0, 2.0, 0.0, 0.0, 0.0, 0.0, 0.0, 0.0, 0.0, 0.0, 0.0, 1.0], "bins": [-0.6213103532791138, -0.602803647518158, -0.5842969417572021, -0.5657902956008911, -0.5472835898399353, -0.5287768840789795, -0.5102701783180237, -0.49176347255706787, -0.47325679659843445, -0.45475009083747864, -0.4362434148788452, -0.4177367091178894, -0.3992300033569336, -0.38072332739830017, -0.36221662163734436, -0.34370994567871094, -0.3252032399177551, -0.3066965341567993, -0.2881898581981659, -0.2696831524372101, -0.25117647647857666, -0.23266977071762085, -0.21416306495666504, -0.19565637409687042, -0.1771496832370758, -0.1586429923772812, -0.14013630151748657, -0.12162959575653076, -0.10312290489673615, -0.08461621403694153, -0.06610951572656631, -0.0476028174161911, -0.02909618616104126, -0.010589491575956345, 0.00791720300912857, 0.026423897594213486, 0.0449305921792984, 0.06343728303909302, 0.08194398134946823, 0.10045067965984344, 0.11895737051963806, 0.13746406137943268, 0.1559707522392273, 0.1744774580001831, 0.19298414885997772, 0.21149083971977234, 0.22999754548072815, 0.24850423634052277, 0.2670109272003174, 0.2855176329612732, 0.3040243089199066, 0.3225310146808624, 0.34103769063949585, 0.35954439640045166, 0.37805110216140747, 0.3965578079223633, 0.4150644838809967, 0.4335711896419525, 0.45207786560058594, 0.47058457136154175, 0.48909127712249756, 0.5075979232788086, 0.5261046290397644, 0.5446113348007202, 0.563118040561676]}, "gradients/action_encoder.l3_z.weight": {"_type": "histogram", "values": [2.0, 0.0, 0.0, 0.0, 0.0, 2.0, 2.0, 2.0, 2.0, 3.0, 4.0, 5.0, 8.0, 5.0, 17.0, 17.0, 11.0, 26.0, 30.0, 38.0, 52.0, 80.0, 79.0, 117.0, 132.0, 216.0, 294.0, 430.0, 648.0, 1326.0, 1862.0, 935.0, 533.0, 344.0, 239.0, 163.0, 134.0, 88.0, 74.0, 55.0, 50.0, 37.0, 23.0, 23.0, 22.0, 12.0, 6.0, 13.0, 4.0, 9.0, 5.0, 2.0, 3.0, 0.0, 1.0, 1.0, 2.0, 2.0, 1.0, 0.0, 0.0, 0.0, 0.0, 1.0], "bins": [-0.333951473236084, -0.3229132890701294, -0.3118751049041748, -0.3008369207382202, -0.2897987365722656, -0.2787605822086334, -0.26772239804267883, -0.25668421387672424, -0.24564602971076965, -0.23460784554481506, -0.22356966137886047, -0.21253149211406708, -0.2014933079481125, -0.1904551237821579, -0.1794169545173645, -0.1683787703514099, -0.15734058618545532, -0.14630240201950073, -0.13526421785354614, -0.12422604858875275, -0.11318786442279816, -0.10214968025684357, -0.09111150354146957, -0.08007332682609558, -0.06903514266014099, -0.0579969622194767, -0.04695878177881241, -0.03592060133814812, -0.024882420897483826, -0.013844240456819534, -0.002806060016155243, 0.00823211669921875, 0.019270330667495728, 0.03030851110816002, 0.04134669154882431, 0.0523848719894886, 0.0634230524301529, 0.07446123659610748, 0.08549941331148148, 0.09653759002685547, 0.10757577419281006, 0.11861395835876465, 0.12965214252471924, 0.14069031178951263, 0.15172849595546722, 0.16276668012142181, 0.1738048493862152, 0.1848430335521698, 0.1958812177181244, 0.20691940188407898, 0.21795758605003357, 0.22899575531482697, 0.24003393948078156, 0.25107210874557495, 0.26211029291152954, 0.27314847707748413, 0.2841866612434387, 0.2952248454093933, 0.3062630295753479, 0.3173012137413025, 0.3283393979072571, 0.3393775522708893, 0.35041573643684387, 0.36145392060279846, 0.37249210476875305]}, "gradients/action_encoder.l2_z.bias": {"_type": "histogram", "values": [1.0, 0.0, 0.0, 0.0, 0.0, 0.0, 0.0, 0.0, 0.0, 0.0, 1.0, 2.0, 1.0, 0.0, 1.0, 2.0, 3.0, 3.0, 2.0, 4.0, 2.0, 2.0, 0.0, 5.0, 2.0, 4.0, 6.0, 5.0, 7.0, 5.0, 5.0, 6.0, 6.0, 4.0, 8.0, 7.0, 6.0, 2.0, 2.0, 6.0, 3.0, 5.0, 1.0, 3.0, 1.0, 2.0, 1.0, 0.0, 0.0, 0.0, 0.0, 0.0, 1.0, 0.0, 0.0, 0.0, 0.0, 0.0, 0.0, 0.0, 0.0, 0.0, 0.0, 1.0], "bins": [-0.7415444850921631, -0.7166348695755005, -0.6917252540588379, -0.6668156385421753, -0.6419060230255127, -0.6169964075088501, -0.5920867919921875, -0.5671771764755249, -0.5422675609588623, -0.5173579454421997, -0.4924483299255371, -0.4675387144088745, -0.4426290988922119, -0.4177194833755493, -0.3928098678588867, -0.3679002523422241, -0.3429906368255615, -0.3180810213088989, -0.29317140579223633, -0.26826179027557373, -0.24335217475891113, -0.21844255924224854, -0.19353294372558594, -0.16862332820892334, -0.14371371269226074, -0.11880409717559814, -0.09389448165893555, -0.06898486614227295, -0.04407525062561035, -0.019165635108947754, 0.005743980407714844, 0.03065359592437744, 0.055563271045684814, 0.08047288656234741, 0.10538250207901001, 0.1302921175956726, 0.1552017331123352, 0.1801113486289978, 0.2050209641456604, 0.229930579662323, 0.2548401951789856, 0.2797498106956482, 0.3046594262123108, 0.3295690417289734, 0.354478657245636, 0.3793882727622986, 0.4042978882789612, 0.4292075037956238, 0.4541171193122864, 0.479026734828949, 0.5039363503456116, 0.5288459658622742, 0.5537555813789368, 0.5786651968955994, 0.603574812412262, 0.6284844279289246, 0.6533940434455872, 0.6783036589622498, 0.7032132744789124, 0.728122889995575, 0.7530325055122375, 0.7779421210289001, 0.8028517365455627, 0.8277613520622253, 0.8526709675788879]}, "gradients/action_encoder.l2_z.weight": {"_type": "histogram", "values": [1.0, 0.0, 0.0, 3.0, 1.0, 0.0, 1.0, 2.0, 1.0, 2.0, 2.0, 1.0, 1.0, 4.0, 1.0, 2.0, 5.0, 3.0, 11.0, 16.0, 14.0, 26.0, 35.0, 53.0, 73.0, 100.0, 129.0, 185.0, 265.0, 429.0, 533.0, 873.0, 1376.0, 2787.0, 4187.0, 2036.0, 1123.0, 664.0, 400.0, 314.0, 178.0, 134.0, 119.0, 65.0, 49.0, 51.0, 33.0, 24.0, 19.0, 10.0, 12.0, 4.0, 11.0, 1.0, 3.0, 1.0, 1.0, 3.0, 1.0, 1.0, 1.0, 3.0, 0.0, 1.0], "bins": [-0.567922055721283, -0.5513470768928528, -0.5347721576690674, -0.5181971788406372, -0.501622200012207, -0.48504725098609924, -0.46847230195999146, -0.4518973231315613, -0.4353223741054535, -0.4187474250793457, -0.4021724462509155, -0.38559749722480774, -0.36902254819869995, -0.3524475693702698, -0.335872620344162, -0.3192976713180542, -0.302722692489624, -0.28614774346351624, -0.26957276463508606, -0.25299781560897827, -0.2364228516817093, -0.2198478877544403, -0.20327293872833252, -0.18669797480106354, -0.17012301087379456, -0.15354804694652557, -0.1369730830192566, -0.1203981339931488, -0.10382317006587982, -0.08724820613861084, -0.07067324966192245, -0.05409829318523407, -0.03752326965332031, -0.02094830945134163, -0.0043733492493629456, 0.012201610952615738, 0.02877657115459442, 0.0453515350818634, 0.06192649155855179, 0.07850144803524017, 0.09507641196250916, 0.11165137588977814, 0.12822633981704712, 0.1448012888431549, 0.1613762527704239, 0.17795121669769287, 0.19452616572380066, 0.21110112965106964, 0.22767609357833862, 0.2442510575056076, 0.2608260214328766, 0.2774009704589844, 0.29397594928741455, 0.31055089831352234, 0.3271258473396301, 0.3437008261680603, 0.3602757751941681, 0.3768507242202759, 0.39342570304870605, 0.41000065207481384, 0.42657560110092163, 0.4431505799293518, 0.4597255289554596, 0.4763004779815674, 0.49287545680999756]}, "gradients/action_encoder.l1_z.bias": {"_type": "histogram", "values": [3.0, 0.0, 0.0, 0.0, 0.0, 1.0, 0.0, 1.0, 0.0, 0.0, 0.0, 0.0, 3.0, 0.0, 4.0, 1.0, 0.0, 1.0, 2.0, 2.0, 5.0, 1.0, 2.0, 3.0, 4.0, 3.0, 1.0, 1.0, 6.0, 4.0, 0.0, 4.0, 4.0, 6.0, 7.0, 3.0, 9.0, 5.0, 3.0, 3.0, 8.0, 0.0, 3.0, 3.0, 2.0, 7.0, 2.0, 1.0, 1.0, 0.0, 2.0, 1.0, 1.0, 0.0, 0.0, 1.0, 0.0, 0.0, 1.0, 0.0, 0.0, 1.0, 0.0, 2.0], "bins": [-0.6577874422073364, -0.6383049488067627, -0.618822455406189, -0.5993399024009705, -0.5798574090003967, -0.560374915599823, -0.5408924221992493, -0.5214099287986755, -0.501927375793457, -0.4824448823928833, -0.4629623591899872, -0.44347986578941345, -0.42399734258651733, -0.4045148491859436, -0.3850323557853699, -0.36554986238479614, -0.3460673689842224, -0.3265848755836487, -0.30710235238075256, -0.28761985898017883, -0.2681373357772827, -0.24865484237670898, -0.22917234897613525, -0.20968984067440033, -0.1902073323726654, -0.17072482407093048, -0.15124231576919556, -0.13175982236862183, -0.1122773140668869, -0.09279480576515198, -0.07331230491399765, -0.05382980406284332, -0.03434723615646362, -0.014864731580018997, 0.004617772996425629, 0.024100277572870255, 0.04358278214931488, 0.0630652904510498, 0.08254779130220413, 0.10203029215335846, 0.12151280045509338, 0.1409953087568283, 0.16047781705856323, 0.17996031045913696, 0.1994428187608719, 0.2189253270626068, 0.23840782046318054, 0.25789034366607666, 0.2773728370666504, 0.2968553304672241, 0.31633785367012024, 0.33582034707069397, 0.3553028702735901, 0.3747853636741638, 0.39426785707473755, 0.4137503504753113, 0.4332328736782074, 0.45271536707878113, 0.47219789028167725, 0.491680383682251, 0.5111628770828247, 0.5306453704833984, 0.5501279234886169, 0.5696104168891907, 0.5890929102897644]}, "gradients/action_encoder.l1_z.weight": {"_type": "histogram", "values": [1.0, 0.0, 1.0, 0.0, 2.0, 1.0, 1.0, 2.0, 1.0, 6.0, 2.0, 2.0, 4.0, 7.0, 8.0, 11.0, 22.0, 23.0, 26.0, 33.0, 29.0, 49.0, 84.0, 85.0, 141.0, 160.0, 258.0, 336.0, 531.0, 905.0, 1918.0, 1318.0, 655.0, 428.0, 271.0, 233.0, 152.0, 110.0, 92.0, 61.0, 59.0, 29.0, 30.0, 28.0, 12.0, 10.0, 15.0, 5.0, 7.0, 9.0, 6.0, 5.0, 2.0, 1.0, 0.0, 1.0, 1.0, 0.0, 0.0, 0.0, 0.0, 0.0, 1.0, 2.0], "bins": [-0.49036654829978943, -0.47442546486854553, -0.458484411239624, -0.4425433278083801, -0.42660224437713623, -0.41066116094589233, -0.39472007751464844, -0.37877902388572693, -0.36283794045448303, -0.34689685702323914, -0.3309558033943176, -0.31501471996307373, -0.29907363653182983, -0.28313255310058594, -0.26719146966934204, -0.25125041604042053, -0.23530933260917664, -0.21936824917793274, -0.20342718064785004, -0.18748611211776733, -0.17154502868652344, -0.15560394525527954, -0.13966287672519684, -0.12372180074453354, -0.10778072476387024, -0.09183964878320694, -0.07589857280254364, -0.05995749682188034, -0.04401642084121704, -0.02807534486055374, -0.012134268879890442, 0.0038068071007728577, 0.019747912883758545, 0.035688988864421844, 0.051630064845085144, 0.06757114082574844, 0.08351221680641174, 0.09945329278707504, 0.11539436876773834, 0.13133543729782104, 0.14727652072906494, 0.16321760416030884, 0.17915867269039154, 0.19509974122047424, 0.21104082465171814, 0.22698190808296204, 0.24292297661304474, 0.25886404514312744, 0.27480512857437134, 0.29074621200561523, 0.30668729543685913, 0.32262834906578064, 0.33856943249702454, 0.35451051592826843, 0.37045156955718994, 0.38639265298843384, 0.40233373641967773, 0.41827481985092163, 0.4342159032821655, 0.45015695691108704, 0.46609804034233093, 0.48203912377357483, 0.49798017740249634, 0.5139212608337402, 0.5298623442649841]}, "gradients/action_encoder.l3_a.bias": {"_type": "histogram", "values": [1.0, 0.0, 0.0, 0.0, 0.0, 0.0, 0.0, 0.0, 0.0, 0.0, 0.0, 0.0, 0.0, 0.0, 0.0, 2.0, 2.0, 2.0, 1.0, 0.0, 0.0, 2.0, 2.0, 2.0, 2.0, 1.0, 1.0, 4.0, 2.0, 3.0, 1.0, 3.0, 6.0, 1.0, 5.0, 6.0, 1.0, 0.0, 3.0, 0.0, 0.0, 3.0, 3.0, 1.0, 0.0, 0.0, 0.0, 1.0, 0.0, 0.0, 0.0, 0.0, 0.0, 0.0, 0.0, 0.0, 0.0, 2.0, 0.0, 0.0, 0.0, 0.0, 0.0, 1.0], "bins": [-0.4621720016002655, -0.4471678137779236, -0.43216365575790405, -0.41715946793556213, -0.4021552801132202, -0.3871510922908783, -0.3721469044685364, -0.35714274644851685, -0.3421385586261749, -0.327134370803833, -0.3121302127838135, -0.29712602496147156, -0.28212183713912964, -0.2671176493167877, -0.2521134614944458, -0.23710930347442627, -0.22210511565208435, -0.20710092782974243, -0.1920967549085617, -0.17709258198738098, -0.16208839416503906, -0.14708420634269714, -0.13208003342151642, -0.1170758530497551, -0.10207167267799377, -0.08706749230623245, -0.07206331193447113, -0.05705913156270981, -0.042054951190948486, -0.027050770819187164, -0.012046590447425842, 0.0029575899243354797, 0.01796180009841919, 0.03296598047018051, 0.047970160841941833, 0.06297434121370316, 0.07797852158546448, 0.0929827019572258, 0.10798688232898712, 0.12299106270074844, 0.13799524307250977, 0.15299943089485168, 0.1680036038160324, 0.18300777673721313, 0.19801196455955505, 0.21301615238189697, 0.2280203253030777, 0.24302449822425842, 0.25802868604660034, 0.27303287386894226, 0.2880370616912842, 0.3030412197113037, 0.31804540753364563, 0.33304959535598755, 0.3480537533760071, 0.363057941198349, 0.3780621290206909, 0.39306631684303284, 0.40807050466537476, 0.4230746626853943, 0.4380788505077362, 0.4530830383300781, 0.46808719635009766, 0.4830913841724396, 0.4980955719947815]}, "gradients/action_encoder.l3_a.weight": {"_type": "histogram", "values": [1.0, 0.0, 0.0, 1.0, 0.0, 1.0, 2.0, 2.0, 1.0, 0.0, 1.0, 4.0, 5.0, 5.0, 6.0, 1.0, 9.0, 10.0, 9.0, 13.0, 14.0, 15.0, 24.0, 36.0, 41.0, 83.0, 107.0, 199.0, 265.0, 421.0, 640.0, 908.0, 1174.0, 1229.0, 989.0, 670.0, 437.0, 249.0, 181.0, 141.0, 87.0, 56.0, 43.0, 25.0, 19.0, 14.0, 14.0, 13.0, 6.0, 4.0, 6.0, 1.0, 1.0, 1.0, 1.0, 2.0, 0.0, 2.0, 2.0, 0.0, 0.0, 0.0, 0.0, 1.0], "bins": [-0.13656359910964966, -0.1324293315410614, -0.12829504907131195, -0.1241607815027237, -0.12002651393413544, -0.11589223891496658, -0.11175796389579773, -0.10762369632720947, -0.10348942875862122, -0.09935515373945236, -0.0952208861708641, -0.09108661115169525, -0.086952343583107, -0.08281806856393814, -0.07868379354476929, -0.07454952597618103, -0.07041525095701218, -0.06628097593784332, -0.062146708369255066, -0.05801243335008621, -0.053878165781497955, -0.0497438907623291, -0.045609619468450546, -0.04147534817457199, -0.037341076880693436, -0.03320680558681488, -0.029072534292936325, -0.02493826113641262, -0.020803989842534065, -0.01666971854865551, -0.012535445392131805, -0.00840117409825325, -0.004266902804374695, -0.00013263104483485222, 0.00400164071470499, 0.00813591293990612, 0.012270184233784676, 0.01640445552766323, 0.020538728684186935, 0.02467299997806549, 0.028807271271944046, 0.0329415425658226, 0.03707581385970116, 0.04121008515357971, 0.045344360172748566, 0.04947862774133682, 0.053612902760505676, 0.05774717405438423, 0.06188144534826279, 0.06601572036743164, 0.0701499879360199, 0.07428426295518875, 0.07841853052377701, 0.08255280554294586, 0.08668707311153412, 0.09082134813070297, 0.09495562314987183, 0.09908989816904068, 0.10322416573762894, 0.10735844075679779, 0.11149270832538605, 0.1156269833445549, 0.11976125836372375, 0.12389552593231201, 0.12802979350090027]}, "gradients/action_encoder.l2_a.bias": {"_type": "histogram", "values": [1.0, 0.0, 0.0, 0.0, 0.0, 0.0, 1.0, 0.0, 0.0, 1.0, 1.0, 1.0, 1.0, 0.0, 0.0, 1.0, 2.0, 0.0, 1.0, 2.0, 3.0, 2.0, 2.0, 4.0, 1.0, 2.0, 6.0, 1.0, 4.0, 5.0, 0.0, 2.0, 5.0, 2.0, 4.0, 2.0, 6.0, 3.0, 4.0, 4.0, 3.0, 3.0, 7.0, 7.0, 3.0, 2.0, 7.0, 4.0, 3.0, 3.0, 1.0, 2.0, 2.0, 0.0, 0.0, 0.0, 2.0, 2.0, 1.0, 0.0, 1.0, 0.0, 0.0, 1.0], "bins": [-0.4653894305229187, -0.45315036177635193, -0.44091132283210754, -0.42867225408554077, -0.416433185338974, -0.4041941165924072, -0.39195507764816284, -0.37971600890159607, -0.3674769401550293, -0.3552378714084625, -0.34299883246421814, -0.33075976371765137, -0.3185206949710846, -0.3062816262245178, -0.29404258728027344, -0.28180351853370667, -0.2695644795894623, -0.2573254108428955, -0.24508635699748993, -0.23284730315208435, -0.22060823440551758, -0.208369180560112, -0.19613012671470642, -0.18389105796813965, -0.17165200412273407, -0.1594129502773285, -0.14717388153076172, -0.13493482768535614, -0.12269576638936996, -0.11045670509338379, -0.09821765124797821, -0.08597858995199203, -0.07373952865600586, -0.061500467360019684, -0.04926140978932381, -0.03702235221862793, -0.024783290922641754, -0.012544229626655579, -0.00030517578125, 0.011933885514736176, 0.02417294681072235, 0.03641200810670853, 0.048651065677404404, 0.06089012324810028, 0.07312918454408646, 0.08536824584007263, 0.09760729968547821, 0.10984636098146439, 0.12208542227745056, 0.13432447612285614, 0.1465635448694229, 0.1588025987148285, 0.17104166746139526, 0.18328072130680084, 0.19551977515220642, 0.2077588438987732, 0.21999789774417877, 0.23223695158958435, 0.24447602033615112, 0.2567150592803955, 0.2689541280269623, 0.28119319677352905, 0.29343223571777344, 0.3056713044643402, 0.317910373210907]}, "gradients/action_encoder.l2_a.weight": {"_type": "histogram", "values": [1.0, 1.0, 1.0, 1.0, 0.0, 3.0, 6.0, 9.0, 9.0, 11.0, 24.0, 42.0, 46.0, 54.0, 67.0, 102.0, 121.0, 180.0, 236.0, 322.0, 410.0, 543.0, 683.0, 968.0, 1116.0, 1310.0, 1483.0, 1494.0, 1457.0, 1216.0, 983.0, 762.0, 587.0, 444.0, 370.0, 261.0, 184.0, 185.0, 146.0, 99.0, 86.0, 77.0, 49.0, 56.0, 41.0, 36.0, 17.0, 20.0, 17.0, 7.0, 15.0, 4.0, 2.0, 7.0, 4.0, 2.0, 2.0, 0.0, 2.0, 1.0, 0.0, 1.0, 0.0, 1.0], "bins": [-0.06665939092636108, -0.06421598792076111, -0.06177258864045143, -0.059329189360141754, -0.05688578635454178, -0.0544423870742321, -0.051998987793922424, -0.04955558478832245, -0.04711218550801277, -0.044668786227703094, -0.04222538322210312, -0.03978198394179344, -0.037338584661483765, -0.03489518165588379, -0.03245178237557411, -0.030008381232619286, -0.02756498008966446, -0.025121578946709633, -0.022678177803754807, -0.02023477852344513, -0.017791377380490303, -0.015347976237535477, -0.012904576025903225, -0.010461175814270973, -0.008017774671316147, -0.005574373994022608, -0.0031309733167290688, -0.0006875726394355297, 0.0017558280378580093, 0.004199229180812836, 0.006642629392445087, 0.00908602960407734, 0.011529438197612762, 0.013972839340567589, 0.016416240483522415, 0.018859639763832092, 0.02130304090678692, 0.023746442049741745, 0.026189841330051422, 0.02863324247300625, 0.031076643615961075, 0.03352004289627075, 0.03596344590187073, 0.038406845182180405, 0.04085024446249008, 0.04329364746809006, 0.045737046748399734, 0.04818044602870941, 0.05062384903430939, 0.053067248314619064, 0.05551065132021904, 0.05795405060052872, 0.06039745360612869, 0.06284084916114807, 0.06528425216674805, 0.06772765517234802, 0.070171058177948, 0.07261446118354797, 0.07505785673856735, 0.07750125974416733, 0.0799446627497673, 0.08238805830478668, 0.08483146131038666, 0.08727486431598663, 0.08971825987100601]}, "gradients/action_encoder.l1_a.bias": {"_type": "histogram", "values": [1.0, 0.0, 0.0, 0.0, 0.0, 0.0, 1.0, 0.0, 1.0, 0.0, 0.0, 0.0, 0.0, 0.0, 0.0, 3.0, 0.0, 0.0, 1.0, 1.0, 1.0, 1.0, 6.0, 0.0, 5.0, 0.0, 5.0, 6.0, 9.0, 8.0, 6.0, 3.0, 7.0, 3.0, 6.0, 5.0, 5.0, 7.0, 4.0, 8.0, 4.0, 2.0, 3.0, 1.0, 2.0, 1.0, 2.0, 1.0, 6.0, 0.0, 1.0, 0.0, 0.0, 1.0, 0.0, 0.0, 0.0, 0.0, 0.0, 0.0, 0.0, 0.0, 0.0, 1.0], "bins": [-0.47342151403427124, -0.4593503475189209, -0.44527921080589294, -0.431208074092865, -0.41713690757751465, -0.4030657410621643, -0.38899460434913635, -0.3749234676361084, -0.36085230112075806, -0.3467811346054077, -0.33270999789237976, -0.3186388611793518, -0.30456769466400146, -0.2904965281486511, -0.27642539143562317, -0.2623542547225952, -0.24828308820724487, -0.23421193659305573, -0.22014078497886658, -0.20606963336467743, -0.19199848175048828, -0.17792733013629913, -0.16385617852210999, -0.14978502690792084, -0.1357138752937317, -0.12164272367954254, -0.1075715720653534, -0.09350042045116425, -0.0794292688369751, -0.06535811722278595, -0.0512869656085968, -0.037215813994407654, -0.023144662380218506, -0.009073510766029358, 0.00499764084815979, 0.019068792462348938, 0.033139944076538086, 0.047211095690727234, 0.06128224730491638, 0.07535339891910553, 0.08942455053329468, 0.10349570214748383, 0.11756685376167297, 0.13163800537586212, 0.14570915699005127, 0.15978030860424042, 0.17385146021842957, 0.1879226118326187, 0.20199376344680786, 0.216064915060997, 0.23013606667518616, 0.2442072182893753, 0.25827836990356445, 0.2723495364189148, 0.28642067313194275, 0.3004918098449707, 0.31456297636032104, 0.3286341428756714, 0.34270527958869934, 0.3567764163017273, 0.37084758281707764, 0.384918749332428, 0.39898988604545593, 0.4130610227584839, 0.42713218927383423]}, "gradients/action_encoder.l1_a.weight": {"_type": "histogram", "values": [1.0, 0.0, 0.0, 0.0, 0.0, 0.0, 0.0, 1.0, 0.0, 0.0, 1.0, 1.0, 0.0, 1.0, 4.0, 3.0, 4.0, 5.0, 9.0, 13.0, 10.0, 16.0, 20.0, 35.0, 37.0, 42.0, 55.0, 84.0, 110.0, 183.0, 246.0, 399.0, 652.0, 1071.0, 1970.0, 3505.0, 3011.0, 1739.0, 1022.0, 600.0, 343.0, 237.0, 156.0, 99.0, 72.0, 51.0, 41.0, 37.0, 35.0, 22.0, 6.0, 7.0, 13.0, 11.0, 2.0, 4.0, 2.0, 3.0, 3.0, 0.0, 2.0, 1.0, 2.0, 1.0], "bins": [-0.09910880029201508, -0.09634912014007568, -0.09358943998813629, -0.0908297672867775, -0.0880700871348381, -0.08531040698289871, -0.08255072683095932, -0.07979105412960052, -0.07703137397766113, -0.07427169382572174, -0.07151201367378235, -0.06875234097242355, -0.06599266082048416, -0.06323298066854477, -0.06047330051660538, -0.057713624089956284, -0.05495394393801689, -0.0521942637860775, -0.049434587359428406, -0.046674907207489014, -0.04391523078083992, -0.04115555062890053, -0.038395874202251434, -0.03563619405031204, -0.03287651389837265, -0.030116835609078407, -0.027357157319784164, -0.024597477167844772, -0.02183780074119568, -0.019078120589256287, -0.016318442299962044, -0.013558764010667801, -0.010799087584018707, -0.008039409294724464, -0.005279730539768934, -0.002520051784813404, 0.00023962650448083878, 0.0029993047937750816, 0.005758984014391899, 0.008518662303686142, 0.011278340592980385, 0.014038018882274628, 0.01679769717156887, 0.019557375460863113, 0.022317055612802505, 0.0250767320394516, 0.02783641219139099, 0.030596090480685234, 0.03335576876997948, 0.03611544892191887, 0.03887512534856796, 0.041634805500507355, 0.04439448192715645, 0.04715416207909584, 0.049913838505744934, 0.052673518657684326, 0.05543319880962372, 0.05819287896156311, 0.060952555388212204, 0.0637122318148613, 0.06647191196680069, 0.06923159211874008, 0.07199127227067947, 0.07475094497203827, 0.07751062512397766]}, "_wandb": {"runtime": 326}}